0.00	-0.663513	-0.884949
20.00	-0.905426	-1.747009
40.00	-0.908356	-1.745483
60.00	-0.908081	-1.742188
80.00	-0.909698	-1.739441
100.00	-0.915161	-1.747681
120.00	-0.907715	-1.740417
140.00	-0.910217	-1.752014
160.00	-0.909088	-1.744019
180.00	-0.911407	-1.745850
200.00	-0.912567	-1.747620
220.00	-0.914734	-1.756653
240.00	-0.912628	-1.754028
260.00	-0.910004	-1.741638
280.00	-0.914001	-1.751892
300.00	-0.908905	-1.744629
320.00	-0.905853	-1.738403
340.00	-0.905884	-1.737122
360.00	-0.914337	-1.745972
380.00	-0.915710	-1.750305
400.00	-0.909393	-1.746155
420.00	-0.915527	-1.750549
440.00	-0.909668	-1.739990
460.00	-0.911591	-1.745056
480.00	-0.915558	-1.751587
500.00	-0.907837	-1.738647
520.00	-0.910645	-1.744690
540.00	-0.914368	-1.747375
560.00	-0.911285	-1.746460
580.00	-0.909241	-1.743652
600.00	-0.911499	-1.742371
620.00	-0.912354	-1.747620
640.00	-0.914856	-1.748413
660.00	-0.913635	-1.749878
680.00	-0.913177	-1.748596
700.00	-0.909760	-1.734253
720.00	-0.909546	-1.740295
740.00	-0.911346	-1.744446
760.00	-0.911682	-1.747131
780.00	-0.910065	-1.750549
800.00	-0.913605	-1.747803
820.00	-0.910126	-1.741455
840.00	-0.908630	-1.741150
860.00	-0.910248	-1.741028
880.00	-0.913208	-1.752502
900.00	-0.911133	-1.749634
920.00	-0.913239	-1.748474
940.00	-0.910645	-1.745056
960.00	-0.907013	-1.737122
980.00	-0.910889	-1.747437
1000.00	-0.911255	-1.747253
1020.00	-0.908600	-1.739380
1040.00	-0.911560	-1.745605
1060.00	-0.910126	-1.743225
1080.00	-0.910614	-1.742310
1100.00	-0.916931	-1.755920
1120.00	-0.907898	-1.739685
1140.00	-0.909607	-1.743774
1160.00	-0.909332	-1.745544
1180.00	-0.912567	-1.748962
1200.00	-0.909790	-1.737244
1220.00	-0.916656	-1.752136
1240.00	-0.911621	-1.744873
1260.00	-0.916016	-1.754822
1280.00	-0.909393	-1.739197
1300.00	-0.909973	-1.742920
1320.00	-0.911896	-1.749146
1340.00	-0.913605	-1.748718
1360.00	-0.914093	-1.751709
1380.00	-0.906708	-1.735474
1400.00	-0.919250	-1.764099
1420.00	-0.914734	-1.750916
1440.00	-0.918732	-1.760925
1460.00	-0.914276	-1.752625
1480.00	-0.907471	-1.738220
1500.00	-0.906464	-1.740295
1520.00	-0.907654	-1.746948
1540.00	-0.919647	-1.763184
1560.00	-0.910065	-1.740295
1580.00	-0.914459	-1.749207
1600.00	-0.912537	-1.747620
1620.00	-0.904144	-1.740112
1640.00	-0.907867	-1.741211
1660.00	-0.909149	-1.743530
1680.00	-0.919342	-1.756042
1700.00	-0.916962	-1.753174
1720.00	-0.910797	-1.744751
1740.00	-0.911316	-1.744629
1760.00	-0.910889	-1.741150
1780.00	-0.913483	-1.750488
1800.00	-0.907440	-1.736328
1820.00	-0.911804	-1.743896
1840.00	-0.910278	-1.747681
1860.00	-0.912720	-1.745728
1880.00	-0.909760	-1.740112
1900.00	-0.910797	-1.744019
1920.00	-0.911499	-1.748230
1940.00	-0.915253	-1.750488
1960.00	-0.914154	-1.748962
1980.00	-0.915466	-1.749146
2000.00	-0.911224	-1.740723
2020.00	-0.910400	-1.743347
2040.00	-0.909637	-1.741821
2060.00	-0.909393	-1.740173
2080.00	-0.913239	-1.747437
2100.00	-0.910919	-1.742188
2120.00	-0.909332	-1.739624
2140.00	-0.917847	-1.759521
2160.00	-0.912994	-1.755005
2180.00	-0.912170	-1.747986
2200.00	-0.914581	-1.755798
2220.00	-0.907288	-1.736877
2240.00	-0.906006	-1.736206
2260.00	-0.916718	-1.755615
2280.00	-0.912445	-1.748352
2300.00	-0.906647	-1.741089
2320.00	-0.914337	-1.748657
2340.00	-0.909943	-1.743225
2360.00	-0.905640	-1.732483
2380.00	-0.907898	-1.737976
2400.00	-0.916168	-1.757507
2420.00	-0.915863	-1.754333
2440.00	-0.909790	-1.741943
2460.00	-0.909393	-1.739868
2480.00	-0.911743	-1.747559
2500.00	-0.904907	-1.730713
2520.00	-0.905365	-1.739380
2540.00	-0.910706	-1.744263
2560.00	-0.912323	-1.745422
2580.00	-0.905182	-1.734131
2600.00	-0.909485	-1.746277
2620.00	-0.910309	-1.744812
2640.00	-0.907166	-1.740051
2660.00	-0.913300	-1.751770
2680.00	-0.911011	-1.745667
2700.00	-0.915131	-1.753174
2720.00	-0.908661	-1.735901
2740.00	-0.912811	-1.747070
2760.00	-0.905884	-1.739563
2780.00	-0.913940	-1.746643
2800.00	-0.911072	-1.743896
2820.00	-0.907959	-1.742065
2840.00	-0.907501	-1.741882
2860.00	-0.913727	-1.753601
2880.00	-0.910797	-1.744934
2900.00	-0.913177	-1.752441
2920.00	-0.906982	-1.740356
2940.00	-0.907318	-1.741028
2960.00	-0.908539	-1.740784
2980.00	-0.911743	-1.747620
3000.00	-0.914154	-1.753357
3020.00	-0.911011	-1.746033
3040.00	-0.907623	-1.738647
3060.00	-0.915222	-1.749023
3080.00	-0.916260	-1.750488
3100.00	-0.914459	-1.752502
3120.00	-0.915680	-1.748596
3140.00	-0.915955	-1.751282
3160.00	-0.909515	-1.741638
3180.00	-0.910034	-1.738831
3200.00	-0.908813	-1.737488
3220.00	-0.915527	-1.750977
3240.00	-0.910248	-1.747498
3260.00	-0.914764	-1.748413
3280.00	-0.905121	-1.741089
3300.00	-0.909882	-1.745056
3320.00	-0.908112	-1.739868
3340.00	-0.917206	-1.750244
3360.00	-0.915070	-1.752563
3380.00	-0.913788	-1.747253
3400.00	-0.914062	-1.753052
3420.00	-0.912811	-1.749329
3440.00	-0.908569	-1.742615
3460.00	-0.906158	-1.736511
3480.00	-0.911499	-1.742310
3500.00	-0.908844	-1.738708
3520.00	-0.907898	-1.738953
3540.00	-0.910095	-1.745239
3560.00	-0.907074	-1.737366
3580.00	-0.910522	-1.742188
3600.00	-0.914948	-1.755737
3620.00	-0.912811	-1.749512
3640.00	-0.914795	-1.752136
3660.00	-0.910370	-1.744080
3680.00	-0.907196	-1.737671
3700.00	-0.911682	-1.744629
3720.00	-0.910522	-1.744690
3740.00	-0.909271	-1.743591
3760.00	-0.913757	-1.746338
3780.00	-0.914490	-1.743591
3800.00	-0.911285	-1.741577
3820.00	-0.916504	-1.752014
3840.00	-0.915466	-1.751770
3860.00	-0.910217	-1.742310
3880.00	-0.918884	-1.761108
3900.00	-0.918030	-1.754333
3920.00	-0.909119	-1.736450
3940.00	-0.909393	-1.741516
3960.00	-0.916595	-1.755188
3980.00	-0.909302	-1.740417
4000.00	-0.913086	-1.750977
